{"learner":{"attributes":{"best_iteration":"0","best_score":"17.089504748960085"},"feature_names":[],"feature_types":[],"gradient_booster":{"model":{"gbtree_model_param":{"num_parallel_tree":"1","num_trees":"11"},"iteration_indptr":[0,1,2,3,4,5,6,7,8,9,10,11],"tree_info":[0,0,0,0,0,0,0,0,0,0,0],"trees":[{"base_weights":[-4.994822E-2,-2.6262023E0,4.513501E0,-1.3644274E0,-2.25609E0,6.387731E0,-1.2574506E1,-5.388837E0,2.4795139E-1,1.1670153E1,3.3094385E0,-2.63508E-1,-1.4423714E1,-2.7868574E0,-1.2250668E1,4.1303225E0,-2.6530414E0,9.233616E-1,1.765142E1,-1.1107556E1,5.9412603E0,-1.1968098E0,-8.2864065E0,-6.350512E-1,-5.2962758E-2,5.455486E-1,-7.3695564E-1,8.3713716E-1,1.0149652E-1,-1.0211859E0,-7.504602E-2,-4.5563847E-1,2.7006486E-1,3.5272223E-1,1.1585659E0,-7.755852E-3,-7.597666E-1,1.4613098E0,2.3057525E-1,-5.475212E-1,-1.7753938E-1],"categories":[],"categories_nodes":[],"categories_segments":[],"categories_sizes":[],"default_left":[0,0,0,0,0,0,0,0,0,0,0,0,0,0,0,0,0,0,0,0,0,0,0,0,0,0,0,0,0,0,0,0,0,0,0,0,0,0,0,0,0],"id":0,"left_children":[1,3,5,-1,7,9,11,13,15,17,19,-1,21,23,25,27,29,31,33,35,37,-1,39,-1,-1,-1,-1,-1,-1,-1,-1,-1,-1,-1,-1,-1,-1,-1,-1,-1,-1],"loss_changes":[3.8445066E3,1.8461525E3,3.8594912E3,0E0,1.6251533E3,1.7012881E3,8.607178E1,1.6084585E3,1.3174347E3,2.4905996E3,2.6840576E3,0E0,3.270841E2,1.1512324E3,1.6017305E3,1.2905652E3,1.3411016E3,7.23338E2,1.298894E3,4.9012512E2,1.6920564E3,0E0,4.9427734E1,0E0,0E0,0E0,0E0,0E0,0E0,0E0,0E0,0E0,0E0,0E0,0E0,0E0,0E0,0E0,0E0,0E0,0E0],"parents":[2147483647,0,0,1,1,2,2,4,4,5,5,6,6,7,7,8,8,9,9,10,10,12,12,13,13,14,14,15,15,16,16,17,17,18,18,19,19,20,20,22,22],"right_children":[2,4,6,-1,8,10,12,14,16,18,20,-1,22,24,26,28,30,32,34,36,38,-1,40,-1,-1,-1,-1,-1,-1,-1,-1,-1,-1,-1,-1,-1,-1,-1,-1,-1,-1],"split_conditions":[8.730409E-2,-1.1963564E0,2.4751887E0,-1.3644274E0,4.4978425E-1,-4.1701692E-1,-1.6854599E0,1.0218639E-1,-6.989796E-1,-1.0399209E0,1.1987126E-2,-2.63508E-1,-1.4868325E0,-1.2385483E0,-1.0852321E0,-1.1218094E0,-6.7184997E-1,-1.3875188E0,-1.2137388E0,3.03732E-1,7.327342E-2,-1.1968098E0,-4.476601E-1,-6.350512E-1,-5.2962758E-2,5.455486E-1,-7.3695564E-1,8.3713716E-1,1.0149652E-1,-1.0211859E0,-7.504602E-2,-4.5563847E-1,2.7006486E-1,3.5272223E-1,1.1585659E0,-7.755852E-3,-7.597666E-1,1.4613098E0,2.3057525E-1,-5.475212E-1,-1.7753938E-1],"split_indices":[6,6,6,0,1,3,1,1,6,1,3,0,1,1,6,3,6,1,3,6,3,0,3,0,0,0,0,0,0,0,0,0,0,0,0,0,0,0,0,0,0],"split_type":[0,0,0,0,0,0,0,0,0,0,0,0,0,0,0,0,0,0,0,0,0,0,0,0,0,0,0,0,0,0,0,0,0,0,0,0,0,0,0,0,0],"sum_hessian":[3.25E2,2.08E2,1.17E2,2E0,2.06E2,1.06E2,1.1E1,9.1E1,1.15E2,3.8E1,6.8E1,3E0,8E0,6.7E1,2.4E1,4.9E1,6.6E1,1.4E1,2.4E1,1E1,5.8E1,2E0,6E0,9E0,5.8E1,2E0,2.2E1,6E0,4.3E1,3E0,6.3E1,4E0,1E1,9E0,1.5E1,3E0,7E0,2E0,5.6E1,3E0,3E0],"tree_param":{"num_deleted":"0","num_feature":"10","num_nodes":"41","size_leaf_vector":"1"}},{"base_weights":[3.05585E-1,-1.3189466E0,5.555786E-1,1.0523196E0,-1.2240406E1,-1.1220798E0,5.2668447E0,-8.2011385E0,-1.0812248E0,6.336714E-1,-4.886435E0,1.0028228E1,2.6373086E0,-1.018436E1,2.4119635E-1,-3.231645E-1,8.6687095E-2,-4.127365E-1,-2.1022873E-2,-4.3741283E-1,6.284632E-1,5.0659955E-1,1.8391144E-2,-6.559049E-1,-1.6188312E-1],"categories":[],"categories_nodes":[],"categories_segments":[],"categories_sizes":[],"default_left":[0,0,0,0,0,0,0,0,0,0,0,0,0,0,0,0,0,0,0,0,0,0,0,0,0],"id":1,"left_children":[1,-1,3,5,7,9,11,13,-1,15,17,19,21,23,-1,-1,-1,-1,-1,-1,-1,-1,-1,-1,-1],"loss_changes":[2.1560334E3,0E0,2.0405372E3,2.828441E3,2.7751282E2,1.3513877E3,1.2881763E3,3.074444E2,0E0,1.1042078E3,9.7430664E2,1.875294E3,1.1698993E3,1.4094623E2,0E0,0E0,0E0,0E0,0E0,0E0,0E0,0E0,0E0,0E0,0E0],"parents":[2147483647,0,0,2,2,3,3,4,4,5,5,6,6,7,7,9,9,10,10,11,11,12,12,13,13],"right_children":[2,-1,4,6,8,10,12,14,-1,16,18,20,22,24,-1,-1,-1,-1,-1,-1,-1,-1,-1,-1,-1],"split_conditions":[-1.1963564E0,-1.3189466E0,2.4751887E0,8.730409E-2,1.2989993E0,5.6356376E-1,-4.1701692E-1,1.0538541E0,-1.0812248E0,-7.419799E-1,-4.4187406E-1,-1.3875188E0,-1.3378619E0,1E0,2.4119635E-1,-3.231645E-1,8.6687095E-2,-4.127365E-1,-2.1022873E-2,-4.3741283E-1,6.284632E-1,5.0659955E-1,1.8391144E-2,-6.559049E-1,-1.6188312E-1],"split_indices":[6,0,6,6,3,3,3,3,0,1,6,1,1,8,0,0,0,0,0,0,0,0,0,0,0],"split_type":[0,0,0,0,0,0,0,0,0,0,0,0,0,0,0,0,0,0,0,0,0,0,0,0,0],"sum_hessian":[3.2E2,2E0,3.18E2,3.07E2,1.1E1,2.03E2,1.04E2,9E0,2E0,1.39E2,6.4E1,3.6E1,6.8E1,8E0,1E0,1.8E1,1.21E2,3.6E1,2.8E1,4E0,3.2E1,1.5E1,5.3E1,5E0,3E0],"tree_param":{"num_deleted":"0","num_feature":"10","num_nodes":"25","size_leaf_vector":"1"}},{"base_weights":[1.0464352E0,-1.0547862E0,4.23139E0,1.0700096E0,-5.8987293E0,5.913378E0,-1.0973223E1,-1.2749817E0,1.6612797E0,-1.0086741E1,2.0043755E-1,1.3259875E0,7.903786E0,-1.2357265E1,-2.240659E0,-6.7521667E0,3.4818382E0,6.527366E-1,-1.2664215E1,-1.2557115E1,6.942645E0,1.2345684E1,-2.2634144E0,9.3569975E0,-3.2043889E0,-8.5257494E-1,-5.603488E0,2.3516646E-1,-4.032159E-1,-4.9938418E-2,-8.1150955E-1,2.5091287E-1,-3.7060276E-1,-2.2965865E-1,-7.1750516E-1,-1.0930125E0,-3.7127838E-2,5.4439956E-1,-7.5491494E-1,-1.06963255E-1,7.211855E-1,4.0191078E-1,-3.3929884E-1,2.730375E-1,6.9674504E-1,-6.345523E-1,2.6176116E-1,-3.6336806E-2,-3.2167456E-1],"categories":[],"categories_nodes":[],"categories_segments":[],"categories_sizes":[],"default_left":[0,0,0,0,0,0,0,0,0,0,0,0,0,0,0,0,0,0,0,0,0,0,0,0,0,0,0,0,0,0,0,0,0,0,0,0,0,0,0,0,0,0,0,0,0,0,0,0,0],"id":2,"left_children":[1,3,5,7,9,11,13,-1,15,17,19,21,23,25,27,29,31,-1,33,35,37,39,41,43,45,-1,47,-1,-1,-1,-1,-1,-1,-1,-1,-1,-1,-1,-1,-1,-1,-1,-1,-1,-1,-1,-1,-1,-1],"loss_changes":[2.1393057E3,1.9927429E3,3.3127834E3,2.16319E3,1.5090815E3,1.0395593E3,1.2943274E2,0E0,2.0606938E3,2.2529568E3,2.2375312E3,1.4518917E3,1.3213853E3,2.5319385E2,1.5924739E2,1.29253E3,1.8783301E3,0E0,3.6950732E2,9.72979E2,1.6426953E3,3.017572E2,1.3590605E3,1.1903071E3,8.6707745E2,0E0,1.961087E1,0E0,0E0,0E0,0E0,0E0,0E0,0E0,0E0,0E0,0E0,0E0,0E0,0E0,0E0,0E0,0E0,0E0,0E0,0E0,0E0,0E0,0E0],"parents":[2147483647,0,0,1,1,2,2,3,3,4,4,5,5,6,6,8,8,9,9,10,10,11,11,12,12,13,13,14,14,15,15,16,16,18,18,19,19,20,20,21,21,22,22,23,23,24,24,26,26],"right_children":[2,4,6,8,10,12,14,-1,16,18,20,22,24,26,28,30,32,-1,34,36,38,40,42,44,46,-1,48,-1,-1,-1,-1,-1,-1,-1,-1,-1,-1,-1,-1,-1,-1,-1,-1,-1,-1,-1,-1,-1,-1],"split_conditions":[1.0008406E-2,5.6356376E-1,2.4751887E0,-1.1963564E0,1.3296424E0,-6.4383316E-1,1.043404E0,-1.2749817E0,-1.1674584E0,-1.5747225E0,-7.601943E-1,6.435294E-1,1.5670292E0,1E0,1.2179457E0,-3.707444E-1,1.4506681E0,6.527366E-1,-7.601943E-1,-3.191646E-1,1.6973603E0,2.9854596E-2,-1.3420002E0,6.9058746E-1,8.008027E-1,-8.5257494E-1,-6.4383316E-1,2.3516646E-1,-4.032159E-1,-4.9938418E-2,-8.1150955E-1,2.5091287E-1,-3.7060276E-1,-2.2965865E-1,-7.1750516E-1,-1.0930125E0,-3.7127838E-2,5.4439956E-1,-7.5491494E-1,-1.06963255E-1,7.211855E-1,4.0191078E-1,-3.3929884E-1,2.730375E-1,6.9674504E-1,-6.345523E-1,2.6176116E-1,-3.6336806E-2,-3.2167456E-1],"split_indices":[6,3,6,6,3,0,0,0,0,0,0,2,0,8,0,6,0,0,0,6,3,6,0,6,6,0,0,0,0,0,0,0,0,0,0,0,0,0,0,0,0,0,0,0,0,0,0,0,0],"split_type":[0,0,0,0,0,0,0,0,0,0,0,0,0,0,0,0,0,0,0,0,0,0,0,0,0,0,0,0,0,0,0,0,0,0,0,0,0,0,0,0,0,0,0,0,0,0,0,0,0],"sum_hessian":[3.18E2,1.92E2,1.26E2,1.34E2,5.8E1,1.14E2,1.2E1,2E0,1.32E2,3.4E1,2.4E1,3.5E1,7.9E1,1E1,2E0,2.3E1,1.09E2,3E0,3.1E1,8E0,1.6E1,8E0,2.7E1,7E1,9E0,5E0,5E0,1E0,1E0,1.5E1,8E0,9.6E1,1.3E1,6E0,2.5E1,4E0,4E0,1.4E1,2E0,1E0,7E0,8E0,1.9E1,3.9E1,3.1E1,4E0,5E0,1E0,4E0],"tree_param":{"num_deleted":"0","num_feature":"10","num_nodes":"49","size_leaf_vector":"1"}},{"base_weights":[3.0130404E-1,-2.0801096E0,3.2327056E0,-2.905089E-1,-7.6810694E0,4.239202E0,-9.962629E0,2.026081E0,-4.338955E0,5.9999514E0,-8.801142E0,1.1057254E0,7.401646E0,-5.8293753E0,-1.57384815E1,2.934551E-1,1.0785156E1,-6.3725452E0,9.644491E0,3.7236798E-1,4.1443158E-2,-1.678927E1,-6.113795E0,7.7847614E0,-7.8849053E-1,3.3570917E0,1.3004048E1,-7.9723563E0,2.2928734E-1,-3.542843E-2,-1.0256132E0,-4.0289226E-1,9.7960025E-2,1.0693868E0,-5.8278527E-2,4.9527645E-1,-4.079342E-1,-2.2949898E-1,8.1281376E-1,-3.1331334E-1,-1.1380115E0,-2.1452366E-1,-1.1458427E0,5.31773E-1,-1.7130975E-1,2.2644404E-1,-2.396454E-1,4.594241E-1,-2.8794914E-1,8.046237E-1,4.9932152E-2,-4.7798863E-1,-1.3346057E-1],"categories":[],"categories_nodes":[],"categories_segments":[],"categories_sizes":[],"default_left":[0,0,0,0,0,0,0,0,0,0,0,0,0,0,0,0,0,0,0,0,0,0,0,0,0,0,0,0,0,0,0,0,0,0,0,0,0,0,0,0,0,0,0,0,0,0,0,0,0,0,0,0,0],"id":3,"left_children":[1,3,5,7,9,11,13,15,17,19,21,23,25,27,29,31,33,35,37,-1,-1,39,41,43,45,47,49,51,-1,-1,-1,-1,-1,-1,-1,-1,-1,-1,-1,-1,-1,-1,-1,-1,-1,-1,-1,-1,-1,-1,-1,-1,-1],"loss_changes":[2.3522998E3,1.8621362E3,2.047673E3,1.3405508E3,7.42374E2,1.3890476E3,1.7085828E2,1.3778694E3,1.5401633E3,2.3765854E1,7.989624E2,9.170488E2,1.5424897E3,2.1511447E2,2.7246368E2,1.0869447E3,1.9255573E3,1.4182614E3,7.334227E2,0E0,0E0,4.857024E2,9.127091E2,5.477839E2,1.2354061E3,2.2856108E3,1.0591855E3,3.341101E1,0E0,0E0,0E0,0E0,0E0,0E0,0E0,0E0,0E0,0E0,0E0,0E0,0E0,0E0,0E0,0E0,0E0,0E0,0E0,0E0,0E0,0E0,0E0,0E0,0E0],"parents":[2147483647,0,0,1,1,2,2,3,3,4,4,5,5,6,6,7,7,8,8,9,9,10,10,11,11,12,12,13,13,14,14,15,15,16,16,17,17,18,18,21,21,22,22,23,23,24,24,25,25,26,26,27,27],"right_children":[2,4,6,8,10,12,14,16,18,20,22,24,26,28,30,32,34,36,38,-1,-1,40,42,44,46,48,50,52,-1,-1,-1,-1,-1,-1,-1,-1,-1,-1,-1,-1,-1,-1,-1,-1,-1,-1,-1,-1,-1,-1,-1,-1,-1],"split_conditions":[-1.6277018E-1,9.852234E-1,2.4751887E0,1.7871964E-1,-1.1238586E0,1.1251453E-1,1.4224201E0,4.0341747E-1,-2.837152E-1,1.3924875E0,-8.5127664E-1,6.435294E-1,6.9058746E-1,1.0386248E0,-6.4383316E-1,-1.05117E0,-8.3806676E-1,-1.1797581E0,1.2266457E0,3.7236798E-1,4.1443158E-2,-7.3633844E-1,1.338771E0,1E0,-4.6748126E-1,9.270428E-1,1.5670292E0,-6.353917E-1,2.2928734E-1,-3.542843E-2,-1.0256132E0,-4.0289226E-1,9.7960025E-2,1.0693868E0,-5.8278527E-2,4.9527645E-1,-4.079342E-1,-2.2949898E-1,8.1281376E-1,-3.1331334E-1,-1.1380115E0,-2.1452366E-1,-1.1458427E0,5.31773E-1,-1.7130975E-1,2.2644404E-1,-2.396454E-1,4.594241E-1,-2.8794914E-1,8.046237E-1,4.9932152E-2,-4.7798863E-1,-1.3346057E-1],"split_indices":[6,0,6,4,4,0,4,0,6,0,4,2,6,4,0,4,6,6,4,0,0,6,2,8,4,0,0,4,0,0,0,0,0,0,0,0,0,0,0,0,0,0,0,0,0,0,0,0,0,0,0,0,0],"split_type":[0,0,0,0,0,0,0,0,0,0,0,0,0,0,0,0,0,0,0,0,0,0,0,0,0,0,0,0,0,0,0,0,0,0,0,0,0,0,0,0,0,0,0,0,0,0,0,0,0,0,0,0,0],"sum_hessian":[3.35E2,1.85E2,1.5E2,1.41E2,4.4E1,1.4E2,1E1,9E1,5.1E1,3E0,4.1E1,7.1E1,6.9E1,7E0,3E0,7.6E1,1.4E1,4.5E1,6E0,2E0,1E0,9E0,3.2E1,1.5E1,5.6E1,4.1E1,2.8E1,6E0,1E0,1E0,2E0,1.2E1,6.4E1,7E0,7E0,4E0,4.1E1,2E0,4E0,4E0,5E0,3E1,2E0,1.2E1,3E0,2.4E1,3.2E1,2.5E1,1.6E1,2.2E1,6E0,4E0,2E0],"tree_param":{"num_deleted":"0","num_feature":"10","num_nodes":"53","size_leaf_vector":"1"}},{"base_weights":[-8.544001E-1,-2.9209576E0,3.1079288E0,-1.2016792E0,-8.662034E0,4.7348604E0,-1.0146594E1,1.0644281E0,-4.0781364E0,-1.1824787E1,1.4925371E0,5.485681E0,-4.9607024E0,-1.9992886E-1,-1.243476E1,-5.3605757E0,3.1338289E0,5.603157E0,-5.2995114E0,-3.521028E0,-1.8081282E1,-4.5207534E0,1.2017953E1,7.9893923E0,2.0167887E0,3.221527E0,-1.0514345E1,-1.0744847E0,-6.77768E0,3.558774E-2,-5.746109E-1,-7.4208075E-1,2.4690783E-1,-7.1677953E-1,6.6739416E-1,5.218092E-1,-3.0931655E-1,-8.941679E-1,2.71831E-2,-9.7234553E-1,2.6492283E-1,-3.8969126E-1,2.3116659E-1,7.2750497E-1,2.7399108E-1,1.0833607E-1,7.831337E-1,-3.4023544E-1,2.683252E-1,2.2223651E-1,-1.1202049E-2,-1.2343108E-1,-7.527644E-1,-4.5811352E-1,-1.3493346E-1],"categories":[],"categories_nodes":[],"categories_segments":[],"categories_sizes":[],"default_left":[0,0,0,0,0,0,0,0,0,0,0,0,0,0,0,0,0,0,0,0,0,0,0,0,0,0,0,0,0,0,0,0,0,0,0,0,0,0,0,0,0,0,0,0,0,0,0,0,0,0,0,0,0,0,0],"id":4,"left_children":[1,3,5,7,9,11,13,15,17,19,21,23,25,-1,27,29,31,33,35,37,39,41,43,45,47,49,51,-1,53,-1,-1,-1,-1,-1,-1,-1,-1,-1,-1,-1,-1,-1,-1,-1,-1,-1,-1,-1,-1,-1,-1,-1,-1,-1,-1],"loss_changes":[2.768562E3,2.1808438E3,2.5494897E3,1.125499E3,1.6555854E3,7.842947E2,1.3315857E2,1.3065021E3,9.283552E2,1.96248E3,8.7713116E2,8.263423E2,3.9740173E2,0E0,3.1537012E2,9.017803E2,2.4733757E3,1.5811311E3,1.0134829E3,1.060534E3,8.0545605E2,3.0539667E2,3.0455933E0,2.4680867E3,1.2775969E3,1.7854317E1,1.4551001E2,0E0,4.336148E1,0E0,0E0,0E0,0E0,0E0,0E0,0E0,0E0,0E0,0E0,0E0,0E0,0E0,0E0,0E0,0E0,0E0,0E0,0E0,0E0,0E0,0E0,0E0,0E0,0E0,0E0],"parents":[2147483647,0,0,1,1,2,2,3,3,4,4,5,5,6,6,7,7,8,8,9,9,10,10,11,11,12,12,14,14,15,15,16,16,17,17,18,18,19,19,20,20,21,21,22,22,23,23,24,24,25,25,26,26,28,28],"right_children":[2,4,6,8,10,12,14,16,18,20,22,24,26,-1,28,30,32,34,36,38,40,42,44,46,48,50,52,-1,54,-1,-1,-1,-1,-1,-1,-1,-1,-1,-1,-1,-1,-1,-1,-1,-1,-1,-1,-1,-1,-1,-1,-1,-1,-1,-1],"split_conditions":[8.730409E-2,9.852234E-1,2.4751887E0,7.327342E-2,1E0,1.4522151E0,-1.635803E0,-1.2443819E0,-8.412936E-1,-7.91056E-1,6.435294E-1,1.338771E0,-4.9369568E-1,-1.9992886E-1,-1.4868325E0,-1.4588839E0,-7.419799E-1,-1.5861461E0,-1.1797581E0,-1.1761831E0,1.6912053E0,1.5088487E0,8.47039E-1,-1.0399209E0,-5.8565253E-1,-6.4383316E-1,-7.601943E-1,-1.0744847E0,-4.476601E-1,3.558774E-2,-5.746109E-1,-7.4208075E-1,2.4690783E-1,-7.1677953E-1,6.6739416E-1,5.218092E-1,-3.0931655E-1,-8.941679E-1,2.71831E-2,-9.7234553E-1,2.6492283E-1,-3.8969126E-1,2.3116659E-1,7.2750497E-1,2.7399108E-1,1.0833607E-1,7.831337E-1,-3.4023544E-1,2.683252E-1,2.2223651E-1,-1.1202049E-2,-1.2343108E-1,-7.527644E-1,-4.5811352E-1,-1.3493346E-1],"split_indices":[6,0,6,3,7,3,1,3,1,6,2,2,1,0,1,3,1,1,6,6,1,0,1,1,0,0,0,0,3,0,0,0,0,0,0,0,0,0,0,0,0,0,0,0,0,0,0,0,0,0,0,0,0,0,0],"split_type":[0,0,0,0,0,0,0,0,0,0,0,0,0,0,0,0,0,0,0,0,0,0,0,0,0,0,0,0,0,0,0,0,0,0,0,0,0,0,0,0,0,0,0,0,0,0,0,0,0,0,0,0,0,0,0],"sum_hessian":[3.36E2,2.21E2,1.15E2,1.71E2,5E1,1.03E2,1.2E1,9.6E1,7.5E1,3.8E1,1.2E1,9.6E1,7E0,4E0,8E0,2.3E1,7.3E1,8E0,6.7E1,1.7E1,2.1E1,8E0,4E0,5.5E1,4.1E1,3E0,4E0,2E0,6E0,1.2E1,1.1E1,6E0,6.7E1,2E0,6E0,3E0,6.4E1,3E0,1.4E1,2E1,1E0,6E0,2E0,2E0,2E0,3.2E1,2.3E1,1.1E1,3E1,2E0,1E0,2E0,2E0,3E0,3E0],"tree_param":{"num_deleted":"0","num_feature":"10","num_nodes":"55","size_leaf_vector":"1"}},{"base_weights":[-4.400341E-2,5.103681E-1,-5.4611187E0,2.0967466E-1,1.8389765E1,7.9774565E-1,-1.6913395E1,2.0165026E0,-1.6723279E0,1.318973E0,2.1350753E-1,9.90395E0,-6.8572364E0,-1.9201473E1,1.4918461E-1,-7.947913E0,3.3204951E0,-9.784758E0,-4.6451E-1,1.3389015E1,-2.6908772E0,-1.6330467E1,2.2422807E0,-2.241862E1,-8.771097E0,-3.7195873E-2,-5.330728E-1,-1.7514615E-1,2.6841947E-1,-8.097922E-1,-4.3089505E-2,2.1868496E-1,-1.22892596E-1,7.737295E-1,2.3774312E-1,-2.2003746E-2,-1.7981206E-1,-3.5242082E-3,-9.7841835E-1,-1.7469159E-1,5.527521E-1,-4.474612E-1,-1.3008267E0,-1.3546562E-1,-4.944294E-1],"categories":[],"categories_nodes":[],"categories_segments":[],"categories_sizes":[],"default_left":[0,0,0,0,0,0,0,0,0,0,0,0,0,0,0,0,0,0,0,0,0,0,0,0,0,0,0,0,0,0,0,0,0,0,0,0,0,0,0,0,0,0,0,0,0],"id":5,"left_children":[1,3,5,7,9,11,13,15,17,-1,-1,19,21,23,-1,25,27,29,31,33,35,37,39,41,43,-1,-1,-1,-1,-1,-1,-1,-1,-1,-1,-1,-1,-1,-1,-1,-1,-1,-1,-1,-1],"loss_changes":[1.00281775E3,1.6251382E3,2.235518E3,1.02010834E3,4.514126E2,1.531778E3,5.580781E2,2.0144001E3,1.4358105E3,0E0,0E0,4.7496625E2,1.0710393E3,1.3892456E2,0E0,3.439391E2,1.9192197E3,1.072955E3,1.2548523E3,7.047766E1,4.5307693E0,3.145099E2,3.9248135E2,1.0640454E2,3.046875E-1,0E0,0E0,0E0,0E0,0E0,0E0,0E0,0E0,0E0,0E0,0E0,0E0,0E0,0E0,0E0,0E0,0E0,0E0,0E0,0E0],"parents":[2147483647,0,0,1,1,2,2,3,3,4,4,5,5,6,6,7,7,8,8,11,11,12,12,13,13,15,15,16,16,17,17,18,18,19,19,20,20,21,21,22,22,23,23,24,24],"right_children":[2,4,6,8,10,12,14,16,18,-1,-1,20,22,24,-1,26,28,30,32,34,36,38,40,42,44,-1,-1,-1,-1,-1,-1,-1,-1,-1,-1,-1,-1,-1,-1,-1,-1,-1,-1,-1,-1],"split_conditions":[1.4506681E0,1.3924875E0,3.5047057E-1,4.2630274E-2,2.2648916E-1,1E0,1.6054308E0,-1.2385483E0,2.571323E-1,1.318973E0,2.1350753E-1,1.95846E-1,-5.9300935E-1,1.1987126E-2,1.4918461E-1,-9.929167E-1,-1.2443819E0,2.2887571E-1,-7.419799E-1,-4.4403884E-1,-1.3378619E0,1.5088487E0,1.6833905E0,-9.0730727E-1,8.966958E-1,-3.7195873E-2,-5.330728E-1,-1.7514615E-1,2.6841947E-1,-8.097922E-1,-4.3089505E-2,2.1868496E-1,-1.22892596E-1,7.737295E-1,2.3774312E-1,-2.2003746E-2,-1.7981206E-1,-3.5242082E-3,-9.7841835E-1,-1.7469159E-1,5.527521E-1,-4.474612E-1,-1.3008267E0,-1.3546562E-1,-4.944294E-1],"split_indices":[0,0,1,3,3,9,3,1,3,0,0,3,1,3,0,0,3,0,1,1,1,0,0,3,1,0,0,0,0,0,0,0,0,0,0,0,0,0,0,0,0,0,0,0,0],"split_type":[0,0,0,0,0,0,0,0,0,0,0,0,0,0,0,0,0,0,0,0,0,0,0,0,0,0,0,0,0,0,0,0,0,0,0,0,0,0,0,0,0,0,0,0,0],"sum_hessian":[3.32E2,3.02E2,3E1,2.98E2,4E0,2E1,1E1,1.52E2,1.46E2,2E0,2E0,9E0,1.1E1,9E0,1E0,1.7E1,1.35E2,1.8E1,1.28E2,7E0,2E0,5E0,6E0,6E0,3E0,5E0,1.2E1,3.1E1,1.04E2,1E1,8E0,3.7E1,9.1E1,5E0,2E0,1E0,1E0,1E0,4E0,4E0,2E0,2E0,4E0,1E0,2E0],"tree_param":{"num_deleted":"0","num_feature":"10","num_nodes":"45","size_leaf_vector":"1"}},{"base_weights":[-3.238583E-1,-2.9917524E0,2.2983227E0,-5.622529E0,4.00768E-1,3.1145058E0,-8.5716E0,-2.6708663E0,-1.0437546E1,-1.2008986E0,1.4269011E0,3.7030392E0,-1.0025929E1,-4.7422476E0,-1.50447445E1,-3.9564154E0,9.34422E0,-1.6733286E1,-4.255171E0,5.647539E0,-4.201262E0,-2.5280416E0,4.842437E0,-1.1826233E0,-1.0711399E0,-6.4423356E0,2.214614E-1,-3.6636543E-2,-9.7855854E-1,-1.13182865E-1,-1.2274989E0,1.3259779E0,-2.9366693E-1,-1.0926986E0,-3.148012E-1,8.256599E-1,-3.8349363E-1,-3.6691555E-1,4.0416756E-1,-9.40952E-1,-6.6933185E-2,2.24672E-1,-4.9619886E-1,5.8540887E-1,1.3106042E-1,-4.8954016E-1,3.9098823E-1,-5.703373E-2,-3.518381E-1],"categories":[],"categories_nodes":[],"categories_segments":[],"categories_sizes":[],"default_left":[0,0,0,0,0,0,0,0,0,0,0,0,0,0,0,0,0,0,0,0,0,0,0,0,0,0,0,0,0,0,0,0,0,0,0,0,0,0,0,0,0,0,0,0,0,0,0,0,0],"id":6,"left_children":[1,3,5,7,9,11,13,15,17,-1,19,21,23,25,27,29,31,33,35,37,39,41,43,45,-1,47,-1,-1,-1,-1,-1,-1,-1,-1,-1,-1,-1,-1,-1,-1,-1,-1,-1,-1,-1,-1,-1,-1,-1],"loss_changes":[2.3294487E3,1.4748724E3,1.5171666E3,1.2938672E3,1.8634235E3,1.2512992E3,2.2610962E2,9.4828265E2,1.2910886E3,0E0,1.7102917E3,1.0842932E3,6.801669E2,1.6886542E2,2.447887E2,1.8268628E3,1.7239585E3,7.709878E2,1.4740919E3,1.356193E3,1.2719972E3,1.2909229E3,1.9213591E3,4.6403265E2,0E0,1.7184906E1,0E0,0E0,0E0,0E0,0E0,0E0,0E0,0E0,0E0,0E0,0E0,0E0,0E0,0E0,0E0,0E0,0E0,0E0,0E0,0E0,0E0,0E0,0E0],"parents":[2147483647,0,0,1,1,2,2,3,3,4,4,5,5,6,6,7,7,8,8,10,10,11,11,12,12,13,13,14,14,15,15,16,16,17,17,18,18,19,19,20,20,21,21,22,22,23,23,25,25],"right_children":[2,4,6,8,10,12,14,16,18,-1,20,22,24,26,28,30,32,34,36,38,40,42,44,46,-1,48,-1,-1,-1,-1,-1,-1,-1,-1,-1,-1,-1,-1,-1,-1,-1,-1,-1,-1,-1,-1,-1,-1,-1],"split_conditions":[-2.3476127E-1,7.477253E-1,2.4751887E0,1.0218639E-1,-1.1963564E0,1.442921E0,1.2989993E0,1.3909287E0,-1.2020783E-1,-1.2008986E0,-6.989796E-1,-1.2443819E0,4.6159807E-1,1.0538541E0,-6.4383316E-1,1.2070699E0,-1.7838842E-1,4.4978425E-1,-1.0911661E0,-1.1674584E0,-6.7184997E-1,-1.4588839E0,-4.7830322E-1,-1.3420002E0,-1.0711399E0,-1.4282408E0,2.214614E-1,-3.6636543E-2,-9.7855854E-1,-1.13182865E-1,-1.2274989E0,1.3259779E0,-2.9366693E-1,-1.0926986E0,-3.148012E-1,8.256599E-1,-3.8349363E-1,-3.6691555E-1,4.0416756E-1,-9.40952E-1,-6.6933185E-2,2.24672E-1,-4.9619886E-1,5.8540887E-1,1.3106042E-1,-4.8954016E-1,3.9098823E-1,-5.703373E-2,-3.518381E-1],"split_indices":[6,1,6,1,6,1,3,3,0,0,6,3,0,3,0,3,0,1,3,0,6,3,3,0,0,3,0,0,0,0,0,0,0,0,0,0,0,0,0,0,0,0,0,0,0,0,0,0,0],"split_type":[0,0,0,0,0,0,0,0,0,0,0,0,0,0,0,0,0,0,0,0,0,0,0,0,0,0,0,0,0,0,0,0,0,0,0,0,0,0,0,0,0,0,0,0,0,0,0,0,0],"sum_hessian":[3.31E2,1.64E2,1.67E2,9.2E1,7.2E1,1.56E2,1.1E1,5.8E1,3.4E1,2E0,7E1,1.5E2,6E0,8E0,3E0,5.3E1,5E0,1.6E1,1.8E1,4E1,3E1,2.3E1,1.27E2,4E0,2E0,7E0,1E0,1E0,2E0,5E1,3E0,2E0,3E0,1E1,6E0,2E0,1.6E1,6E0,3.4E1,4E0,2.6E1,1.2E1,1.1E1,3E1,9.7E1,2E0,2E0,1E0,6E0],"tree_param":{"num_deleted":"0","num_feature":"10","num_nodes":"49","size_leaf_vector":"1"}},{"base_weights":[-1.604648E-1,1.0403455E0,-4.1039004E0,-8.003156E-1,7.383677E0,-9.694628E0,3.2518616E0,2.3173096E0,-2.6948001E0,1.0534753E1,5.270651E-1,5.9145985E0,-1.0981025E1,9.110574E0,-8.248326E0,-1.0454998E0,8.33436E0,1.3574653E0,-6.102029E0,4.553038E0,1.495003E1,-1.016157E0,4.175509E0,3.630237E-1,4.6924304E-2,-1.2986898E1,6.170594E-1,-1.831398E0,1.6275513E1,-1.4042811E1,1.3816066E1,2.4478467E-1,-2.6558456E-1,5.715746E-1,-2.205427E-1,-4.9577838E-1,2.2919767E-1,6.1617076E-1,-3.429278E-1,3.7984008E-1,-3.9996666E-1,8.6990875E-1,-2.0807981E-2,6.992337E-1,9.676544E-2,-9.744052E-1,-4.9934688E-1,3.5251567E-1,-2.9852295E-1,-1.4972763E-1,2.1592484E-1,9.168339E-1,3.269218E-1,-8.1709254E-1,1.6621342E-1,2.1247855E-1,8.2372636E-1],"categories":[],"categories_nodes":[],"categories_segments":[],"categories_sizes":[],"default_left":[0,0,0,0,0,0,0,0,0,0,0,0,0,0,0,0,0,0,0,0,0,0,0,0,0,0,0,0,0,0,0,0,0,0,0,0,0,0,0,0,0,0,0,0,0,0,0,0,0,0,0,0,0,0,0,0,0],"id":7,"left_children":[1,3,5,7,9,11,13,15,17,19,21,23,25,27,29,31,33,35,37,39,41,-1,43,-1,-1,45,47,49,51,53,55,-1,-1,-1,-1,-1,-1,-1,-1,-1,-1,-1,-1,-1,-1,-1,-1,-1,-1,-1,-1,-1,-1,-1,-1,-1,-1],"loss_changes":[1.5621891E3,2.959918E3,3.1980781E3,1.1697842E3,1.2259729E3,9.484531E2,2.365941E3,1.5262781E3,1.7065437E3,9.61958E2,1.5302047E3,1.9975052E1,9.618496E2,1.832974E3,1.7282378E3,1.2679714E3,1.1162104E3,2.1186738E3,1.01845776E3,7.4848535E2,8.348511E2,0E0,3.465017E2,0E0,0E0,4.879912E2,3.3874783E2,8.446475E1,1.6108252E2,4.5360046E2,6.286865E0,0E0,0E0,0E0,0E0,0E0,0E0,0E0,0E0,0E0,0E0,0E0,0E0,0E0,0E0,0E0,0E0,0E0,0E0,0E0,0E0,0E0,0E0,0E0,0E0,0E0,0E0],"parents":[2147483647,0,0,1,1,2,2,3,3,4,4,5,5,6,6,7,7,8,8,9,9,10,10,11,11,12,12,13,13,14,14,15,15,16,16,17,17,18,18,19,19,20,20,22,22,25,25,26,26,27,27,28,28,29,29,30,30],"right_children":[2,4,6,8,10,12,14,16,18,20,22,24,26,28,30,32,34,36,38,40,42,-1,44,-1,-1,46,48,50,52,54,56,-1,-1,-1,-1,-1,-1,-1,-1,-1,-1,-1,-1,-1,-1,-1,-1,-1,-1,-1,-1,-1,-1,-1,-1,-1,-1],"split_conditions":[9.852234E-1,2.870563E-1,6.435294E-1,-3.94382E-1,5.942069E-1,-1.5508134E0,5.4909796E-1,-3.529302E-1,-2.3315805E-1,-8.7666416E-1,-7.469538E-1,1.3924875E0,1.023211E0,-1.0399209E0,1.6912053E0,-1.0510973E0,1.338771E0,-1.2443819E0,-1.6329032E0,1E0,9.270428E-1,-1.016157E0,3.452369E-1,3.630237E-1,4.6924304E-2,-1.0399209E0,1.6054308E0,1.2683562E0,-9.644097E-2,1E0,1.1597651E0,2.4478467E-1,-2.6558456E-1,5.715746E-1,-2.205427E-1,-4.9577838E-1,2.2919767E-1,6.1617076E-1,-3.429278E-1,3.7984008E-1,-3.9996666E-1,8.6990875E-1,-2.0807981E-2,6.992337E-1,9.676544E-2,-9.744052E-1,-4.9934688E-1,3.5251567E-1,-2.9852295E-1,-1.4972763E-1,2.1592484E-1,9.168339E-1,3.269218E-1,-8.1709254E-1,1.6621342E-1,2.1247855E-1,8.2372636E-1],"split_indices":[0,0,2,1,3,3,1,0,3,3,2,0,3,1,1,0,2,3,0,7,0,0,0,0,0,1,3,3,1,7,0,0,0,0,0,0,0,0,0,0,0,0,0,0,0,0,0,0,0,0,0,0,0,0,0,0,0],"split_type":[0,0,0,0,0,0,0,0,0,0,0,0,0,0,0,0,0,0,0,0,0,0,0,0,0,0,0,0,0,0,0,0,0,0,0,0,0,0,0,0,0,0,0,0,0,0,0,0,0,0,0,0,0,0,0,0,0],"sum_hessian":[3.28E2,2.52E2,7.6E1,1.96E2,5.6E1,4.3E1,3.3E1,7.4E1,1.22E2,3.8E1,1.8E1,3E0,4E1,2.2E1,1.1E1,4.8E1,2.6E1,5.6E1,6.6E1,1.7E1,2.1E1,2E0,1.6E1,2E0,1E0,3.4E1,6E0,9E0,1.3E1,9E0,2E0,2E1,2.8E1,2.1E1,5E0,1.2E1,4.4E1,2E0,6.4E1,1.4E1,3E0,1.8E1,3E0,2E0,1.4E1,9E0,2.5E1,3E0,3E0,8E0,1E0,1E1,3E0,8E0,1E0,1E0,1E0],"tree_param":{"num_deleted":"0","num_feature":"10","num_nodes":"57","size_leaf_vector":"1"}},{"base_weights":[-2.3440802E-1,-1.1563662E0,-2.5580274E-2,3.4723207E-1,-9.143176E0,-1.2680769E0,3.6360786E0,-3.3609803E0,-1.1339599E1,-4.579583E0,1.2666622E0,9.066024E0,7.9159117E-1,-4.8968315E-2,-3.7115421E0,-1.0104278E0,-5.918675E0,-7.409244E-2,-6.0484695E-1,-3.0778262E-1,1.5266083E-1,5.4329723E-1,-4.0249157E-1,-2.3324905E-1,2.3824489E-1,-2.1472906E-1,-4.906063E-2,-3.6542463E-1,-8.1470996E-2],"categories":[],"categories_nodes":[],"categories_segments":[],"categories_sizes":[],"default_left":[0,0,0,0,0,0,0,0,0,0,0,0,0,0,0,0,0,0,0,0,0,0,0,0,0,0,0,0,0],"id":8,"left_children":[1,-1,3,5,7,9,11,13,15,17,19,21,23,-1,25,-1,27,-1,-1,-1,-1,-1,-1,-1,-1,-1,-1,-1,-1],"loss_changes":[1.586593E3,0E0,1.124895E3,1.6939868E3,1.2698987E2,1.8020748E3,1.6145917E3,5.395584E-1,3.130935E2,2.1477441E3,1.6365594E3,1.1965278E3,1.5398726E3,0E0,2.153656E0,0E0,2.9820389E1,0E0,0E0,0E0,0E0,0E0,0E0,0E0,0E0,0E0,0E0,0E0,0E0],"parents":[2147483647,0,0,2,2,3,3,4,4,5,5,6,6,7,7,8,8,9,9,10,10,11,11,12,12,14,14,16,16],"right_children":[2,-1,4,6,8,10,12,14,16,18,20,22,24,-1,26,-1,28,-1,-1,-1,-1,-1,-1,-1,-1,-1,-1,-1,-1],"split_conditions":[-1.1963564E0,-1.1563662E0,2.4751887E0,8.730409E-2,-1.635803E0,4.9944112E-1,-6.128583E-1,-1.1005982E0,-1.4868325E0,1.0218639E-1,-1.1674584E0,3.5047057E-1,4.8110387E-1,-4.8968315E-2,-1.6854599E0,-1.0104278E0,-4.111108E-1,-7.409244E-2,-6.0484695E-1,-3.0778262E-1,1.5266083E-1,5.4329723E-1,-4.0249157E-1,-2.3324905E-1,2.3824489E-1,-2.1472906E-1,-4.906063E-2,-3.6542463E-1,-8.1470996E-2],"split_indices":[6,0,6,6,1,1,4,4,1,1,0,1,4,0,1,0,0,0,0,0,0,0,0,0,0,0,0,0,0],"split_type":[0,0,0,0,0,0,0,0,0,0,0,0,0,0,0,0,0,0,0,0,0,0,0,0,0,0,0,0,0],"sum_hessian":[3.31E2,2E0,3.29E2,3.17E2,1.2E1,2.13E2,1.04E2,4E0,8E0,9.2E1,1.21E2,3.5E1,6.9E1,1E0,3E0,2E0,6E0,6.6E1,2.6E1,2.3E1,9.8E1,3.2E1,3E0,2.9E1,4E1,2E0,1E0,4E0,2E0],"tree_param":{"num_deleted":"0","num_feature":"10","num_nodes":"29","size_leaf_vector":"1"}},{"base_weights":[-1.0283398E-1,-2.2752779E0,1.9930903E0,-1.1157794E0,-1.216769E1,2.9542704E0,-6.234269E0,1.1954607E0,-5.4897895E0,-1.5308258E1,-1.5686753E0,-4.8047347E0,4.0988255E0,-2.0506262E1,-2.0127861E0,3.0445738E0,-1.0986854E1,1.5172924E1,-7.0973115E0,-1.9703777E1,-4.3346705E0,1.3270187E-1,-2.093546E-1,3.449839E0,-1.1872099E1,1.2630555E1,1.4912289E0,-1.3041614E0,-9.438419E-2,3.6860554E0,-5.2308125E0,-7.7590376E-1,1.8394157E-1,2.6881588E-1,-7.2253656E-1,1.297246E-1,9.250452E-1,-4.9338147E-1,1.6771685E-2,-1.107651E0,-3.710477E-1,-5.2138317E-1,-1.02253435E-2,1.4631398E-2,-8.676911E-3,3.2102117E-1,-5.8213544E-1,-2.7550825E-1,-1.081397E0,1.3639164E-2,7.498279E-1,9.350137E-1,1.1698286E-2,6.59771E-3,2.1852425E-1,-3.6466402E-1,-8.548447E-2],"categories":[],"categories_nodes":[],"categories_segments":[],"categories_sizes":[],"default_left":[0,0,0,0,0,0,0,0,0,0,0,0,0,0,0,0,0,0,0,0,0,0,0,0,0,0,0,0,0,0,0,0,0,0,0,0,0,0,0,0,0,0,0,0,0,0,0,0,0,0,0,0,0,0,0,0,0],"id":9,"left_children":[1,3,5,7,9,11,13,15,17,19,21,23,25,27,29,31,33,35,37,39,41,43,-1,45,47,49,51,-1,-1,53,55,-1,-1,-1,-1,-1,-1,-1,-1,-1,-1,-1,-1,-1,-1,-1,-1,-1,-1,-1,-1,-1,-1,-1,-1,-1,-1],"loss_changes":[1.5116699E3,1.8560723E3,1.3548652E3,1.4926428E3,5.41864E2,1.3695463E3,1.0432068E3,2.2185186E3,1.801691E3,5.416406E2,2.2830204E1,1.2077184E3,2.9400571E3,3.6610352E2,2.9436642E2,1.0578357E3,8.145321E2,1.1944263E2,9.9168115E2,1.0635571E2,1.2369275E2,2.4668527E-1,0E0,5.2308795E2,5.635526E2,9.023032E2,2.2241638E3,0E0,0E0,1.4018486E1,6.015277E1,0E0,0E0,0E0,0E0,0E0,0E0,0E0,0E0,0E0,0E0,0E0,0E0,0E0,0E0,0E0,0E0,0E0,0E0,0E0,0E0,0E0,0E0,0E0,0E0,0E0,0E0],"parents":[2147483647,0,0,1,1,2,2,3,3,4,4,5,5,6,6,7,7,8,8,9,9,10,10,11,11,12,12,13,13,14,14,15,15,16,16,17,17,18,18,19,19,20,20,21,21,23,23,24,24,25,25,26,26,29,29,30,30],"right_children":[2,4,6,8,10,12,14,16,18,20,22,24,26,28,30,32,34,36,38,40,42,44,-1,46,48,50,52,-1,-1,54,56,-1,-1,-1,-1,-1,-1,-1,-1,-1,-1,-1,-1,-1,-1,-1,-1,-1,-1,-1,-1,-1,-1,-1,-1,-1,-1],"split_conditions":[-2.3476127E-1,-3.3847722E-1,1.9305089E0,4.1034803E-1,1E0,-1.2443819E0,1.338771E0,1.4506681E0,-1.1797581E0,6.554932E-1,3.452369E-1,-1.4588839E0,-4.7830322E-1,2.7777884E0,2.4751887E0,-1.5747225E0,1E0,-7.601943E-1,1.3909287E0,-2.5701305E-1,-3.191646E-1,-7.0201373E-1,-2.093546E-1,1.5670292E0,6.3613987E-1,-1.4067299E-2,-1.925596E-1,-1.3041614E0,-9.438419E-2,-8.765555E-1,-4.111108E-1,-7.7590376E-1,1.8394157E-1,2.6881588E-1,-7.2253656E-1,1.297246E-1,9.250452E-1,-4.9338147E-1,1.6771685E-2,-1.107651E0,-3.710477E-1,-5.2138317E-1,-1.02253435E-2,1.4631398E-2,-8.676911E-3,3.2102117E-1,-5.8213544E-1,-2.7550825E-1,-1.081397E0,1.3639164E-2,7.498279E-1,9.350137E-1,1.1698286E-2,6.59771E-3,2.1852425E-1,-3.6466402E-1,-8.548447E-2],"split_indices":[6,6,6,3,8,3,2,0,6,3,0,3,3,6,6,0,9,0,3,6,6,0,0,0,0,6,6,0,0,0,0,0,0,0,0,0,0,0,0,0,0,0,0,0,0,0,0,0,0,0,0,0,0,0,0,0,0],"split_type":[0,0,0,0,0,0,0,0,0,0,0,0,0,0,0,0,0,0,0,0,0,0,0,0,0,0,0,0,0,0,0,0,0,0,0,0,0,0,0,0,0,0,0,0,0,0,0,0,0,0,0,0,0,0,0,0,0],"sum_hessian":[3.3E2,1.62E2,1.68E2,1.46E2,1.6E1,1.51E2,1.7E1,9.6E1,5E1,1.2E1,4E0,1.9E1,1.32E2,3E0,1.4E1,8.4E1,1.2E1,3E0,4.7E1,8E0,4E0,3E0,1E0,9E0,1E1,3E1,1.02E2,2E0,1E0,5E0,9E0,2E0,8.2E1,2E0,1E1,1E0,2E0,3.4E1,1.3E1,6E0,2E0,1E0,3E0,2E0,1E0,8E0,1E0,7E0,3E0,5E0,2.5E1,6E0,9.6E1,1E0,4E0,5E0,4E0],"tree_param":{"num_deleted":"0","num_feature":"10","num_nodes":"57","size_leaf_vector":"1"}},{"base_weights":[-8.0246866E-2,-3.985947E0,9.147638E-1,-3.0986931E0,-1.1088442E0,5.9713197E-1,1.1123453E1,-4.13098E0,6.192153E0,3.0950325E0,-9.833998E-1,2.46013E-1,6.1855704E-1,-2.4414387E-1,-8.872516E0,1.1354955E-1,8.600884E0,-4.2469252E-2,1.1695684E1,-1.0321489E1,-2.9205057E-1,-1.3434142E-1,7.2303957E-1,-6.5705484E-1,1.454E-1,3.275633E-2,-2.4240112E-2,7.429666E-1,1.66072E-1,-1.8964107E-1,1.8545003E-1,7.7034825E-1,4.303143E-1,-6.637837E-1,9.907811E-2,-3.3503997E-1,2.887474E-2],"categories":[],"categories_nodes":[],"categories_segments":[],"categories_sizes":[],"default_left":[0,0,0,0,0,0,0,0,0,0,0,0,0,0,0,0,0,0,0,0,0,0,0,0,0,0,0,0,0,0,0,0,0,0,0,0,0],"id":10,"left_children":[1,3,5,7,-1,9,11,13,15,17,19,-1,-1,21,23,25,27,29,31,33,35,-1,-1,-1,-1,-1,-1,-1,-1,-1,-1,-1,-1,-1,-1,-1,-1],"loss_changes":[1.3016415E3,1.0287992E3,8.591332E2,6.585737E2,0E0,1.0295266E3,1.0479736E0,1.1036082E3,1.0151541E2,2.725937E3,1.0299265E3,0E0,0E0,1.2601173E3,1.3959382E3,1.2897675E0,1.1585126E2,1.0692676E3,1.7697534E2,4.2610706E2,8.3977435E2,0E0,0E0,0E0,0E0,0E0,0E0,0E0,0E0,0E0,0E0,0E0,0E0,0E0,0E0,0E0,0E0],"parents":[2147483647,0,0,1,1,2,2,3,3,5,5,6,6,7,7,8,8,9,9,10,10,13,13,14,14,15,15,16,16,17,17,18,18,19,19,20,20],"right_children":[2,4,6,8,-1,10,12,14,16,18,20,-1,-1,22,24,26,28,30,32,34,36,-1,-1,-1,-1,-1,-1,-1,-1,-1,-1,-1,-1,-1,-1,-1,-1],"split_conditions":[-7.469538E-1,1.4925779E0,1.6912053E0,1.2442937E0,-1.1088442E0,-3.94382E-1,-7.847347E-1,4.1034803E-1,-6.621621E-1,-7.916367E-1,-1.9575465E-1,2.46013E-1,6.1855704E-1,3.184186E-1,1.3909287E0,1.3932642E0,1.3932642E0,7.327342E-2,-4.7830322E-1,1.338771E0,-1.2443819E0,-1.3434142E-1,7.2303957E-1,-6.5705484E-1,1.454E-1,3.275633E-2,-2.4240112E-2,7.429666E-1,1.66072E-1,-1.8964107E-1,1.8545003E-1,7.7034825E-1,4.303143E-1,-6.637837E-1,9.907811E-2,-3.3503997E-1,2.887474E-2],"split_indices":[2,1,1,1,0,1,3,3,3,1,1,0,0,3,3,1,1,3,3,2,3,0,0,0,0,0,0,0,0,0,0,0,0,0,0,0,0],"split_type":[0,0,0,0,0,0,0,0,0,0,0,0,0,0,0,0,0,0,0,0,0,0,0,0,0,0,0,0,0,0,0,0,0,0,0,0,0],"sum_hessian":[3.33E2,6.7E1,2.66E2,6.5E1,2E0,2.59E2,7E0,5.9E1,6E0,1E2,1.59E2,2E0,5E0,3.3E1,2.6E1,2E0,4E0,7.4E1,2.6E1,1E1,1.49E2,2.9E1,4E0,1.9E1,7E0,1E0,1E0,1E0,3E0,3.7E1,3.7E1,1E1,1.6E1,8E0,2E0,1.7E1,1.32E2],"tree_param":{"num_deleted":"0","num_feature":"10","num_nodes":"37","size_leaf_vector":"1"}}]},"name":"gbtree"},"learner_model_param":{"base_score":"5.199233E1","boost_from_average":"1","num_class":"0","num_feature":"10","num_target":"1"},"objective":{"name":"reg:squarederror","reg_loss_param":{"scale_pos_weight":"1"}}},"version":[3,0,4]}